tree
version=v4
num_class=1
num_tree_per_iteration=1
label_index=0
max_feature_idx=35
objective=binary sigmoid:1
feature_names=Capital_Gains sma_10 sma_20 sma_50 ema_12 ema_26 macd macd_signal macd_diff adx adx_pos adx_neg rsi rsi_fast roc roc_fast stoch_k stoch_d bb_high bb_low bb_width atr vwap obv mfi momentum_1 momentum_3 momentum_5 volatility_10 volatility_20 volume_ratio price_to_sma20 price_to_sma50 price_to_vwap sma_cross_10_20 ema_cross
feature_infos=none [462.88248901367189:602.20722656249995] [461.85283508300779:600.18544921875002] [445.82710937500002:593.73515747070314] [462.15959087315474:602.16297979654951] [457.13538515204652:598.46132471311716] [-16.953175156273801:12.197085387352899] [-12.504469804091059:9.6621253983815496] [-6.3978770437391717:5.35672853260502] [9.2054550826936872:55.544997063591282] [6.6039030235183427:43.107032825162577] [5.8451169519716055:49.102540210604687] [21.587349424820502:81.974898256177937] [13.150468075539749:90.160933211597637] [-11.968502994272679:10.908800015430401] [-11.246178026937374:7.8695470187486318] [0:100] [4.5533280551048252:99.041738621600814] [468.84236885211783:620.12757711113193] [454.02755687786441:592.34461933664261] [2.3734646878083301:17.67173824032179] [3.6510723241932799:20.202481856793082] [445.88008943938621:526.65128566822727] [1170530700:3058776500] [19.885373849453927:89.098836232230369] [-0.058542909213103678:0.10501934425982218] [-0.10653305696245619:0.085774269401784231] [-0.11496147345763885:0.082843086283274747] [0.0027397994172469933:0.046653684039696559] [0.0034173308205268423:0.034359209166386004] [0.40165350434609826:2.9976745107004401] [0.89822743648739545:1.0639651007127156] [0.85994812593835235:1.0732574081893107] [0.94833195118752389:1.1884894643461015] [0:1] [0:1]
tree_sizes=1262 1364 1372 1270 1160 1371 1377 1378 1271 1483 1373 1277 1484 1278 1379 1281 1285 1280 1279 1274 1379 1174 1474 1371 1374 1183 1379

Tree=0
num_leaves=11
num_cat=0
split_feature=31 29 2 3 11 21 30 13 4 1
split_gain=56.518 55.6668 35.6384 33.5141 16.272 9.79817 11.7929 8.22398 3.09427 7.08632
threshold=1.0126232753632574 0.013715207266261261 588.75487213134772 525.23982604980472 17.584026729961518 5.9823100052097233 0.93430407845394836 67.528164252115843 531.69939828356735 563.30823669433596
decision_type=2 2 2 2 2 2 2 2 2 2
left_child=2 3 5 4 -2 6 -1 -5 -7 -10
right_child=1 -3 -4 7 -6 8 -8 -9 9 -11
leaf_value=-0.77423444449428758 -0.73663908484191376 -0.68377061004569284 -0.80008125415755627 -0.83180233863545006 -0.8250736237562234 -0.66896743704304162 -0.70844256499206071 -0.90581820195072371 -0.72033266373548288 -0.67255608504608322
leaf_weight=9.499652683734892 11.821789979934694 10.132962808012961 11.821790024638174 6.7553085982799521 9.2885493189096433 11.610686540603636 24.065786704421043 8.4441357851028425 17.52158156037331 13.932823851704596
leaf_count=25 24 12 36 24 32 11 38 40 31 14
internal_value=-0.742728 -0.787393 -0.719277 -0.816311 -0.77555 -0.706811 -0.727063 -0.872922 -0.691027 -0.69917
internal_weight=134.895 46.4427 88.4523 36.3098 21.1103 76.6305 33.5654 15.1994 43.0651 31.4544
internal_count=287 132 155 120 56 119 63 64 56 45
is_linear=0
shrinkage=1


Tree=1
num_leaves=12
num_cat=0
split_feature=33 32 29 33 20 12 9 30 23 9 19
split_gain=58.3759 37.3614 44.2372 19.933 31.2168 21.8002 17.3783 12.7104 5.35838 4.18972 2.18526
threshold=1.1552084052543179 1.0456178380078864 0.010271649224667462 1.0819639521200528 5.3538724862039784 59.972039678114136 24.724606389839057 0.96782159582618521 1630318650.0000002 21.917961359706585 493.19593259914694
decision_type=2 2 2 2 2 2 2 2 2 2 2
left_child=1 3 -3 8 6 -6 9 -2 -1 -5 -10
right_child=7 2 -4 4 5 -7 -8 -9 10 -11 -12
leaf_value=0.10104274080233722 -0.071406454342917286 -0.072330862838268589 0.10542209313948517 0.10758573613966259 0.061301165029342498 -0.071666973643388074 0.058781712554180632 0.037809883764879301 0.14999868708995087 0.14499083677274455 0.12535741850620921
leaf_weight=17.120182633399963 6.5006267279386503 7.0283518433570844 6.9727007895708084 16.55392807722092 9.2217817455530149 4.6302276253700247 15.077545329928396 4.5135735124349594 14.494159683585165 13.666805088520048 23.724844202399254
leaf_count=30 31 33 12 28 22 22 37 13 14 14 31
internal_value=0.0838217 0.0932913 0.0161924 0.10272 0.0825403 0.0168547 0.102627 -0.0266501 0.124289 0.124502 0.134702
internal_weight=139.505 128.491 14.0011 114.489 59.1503 13.852 45.2983 11.0142 55.3392 30.2207 38.219
internal_count=287 243 45 198 123 44 79 44 75 42 45
is_linear=0
shrinkage=0.05


Tree=2
num_leaves=12
num_cat=0
split_feature=33 32 29 33 19 18 2 14 30 27 17
split_gain=50.1119 31.4202 39.336 16.3172 27.8364 16.8867 22.29 12.1341 11.7756 3.9186 1.40401
threshold=1.1552084052543179 1.0456178380078864 0.010271649224667462 1.0819639521200528 501.35291429397313 554.56686565191592 545.48945846557626 -1.1429935198800341 0.96782159582618521 0.0037383263188692788 36.80201607447227
decision_type=2 2 2 2 2 2 2 2 2 2 2
left_child=1 3 -3 9 -5 -6 -7 -8 -2 10 -1
right_child=8 2 -4 4 5 6 7 -9 -10 -11 -12
leaf_value=0.11113075929621008 -0.069932413865935641 -0.070775345799812123 0.096614744658117938 -0.029440041919780446 0.12834045914498424 -0.026957833504693371 0.11301725943730333 0.052056411204948971 0.035416345724569316 0.09476943843849675 0.13050463023316791
leaf_weight=15.865367099642752 6.3105827271938306 6.8287409245967847 7.22101891040802 5.6484796702861777 17.116995558142662 5.2649280577898017 17.084859162569039 15.631451755762106 4.5760080218315125 18.903039053082466 22.776449352502823
leaf_count=21 31 33 12 22 20 20 23 38 13 31 23
internal_value=0.0774659 0.0859484 0.0152565 0.0943446 0.0762705 0.0871076 0.0685252 0.0838909 -0.0256507 0.113424 0.12255
internal_weight=143.228 132.341 14.0498 118.292 60.7467 55.0982 37.9812 32.7163 10.8866 57.5449 38.6418
internal_count=287 243 45 198 123 101 81 61 44 75 44
is_linear=0
shrinkage=0.05


Tree=3
num_leaves=11
num_cat=0
split_feature=33 11 33 24 9 27 30 9 15 10
split_gain=43.4745 24.0052 20.4455 23.1778 20.2524 23.9235 10.9304 8.17384 4.78437 1.1248
threshold=1.1552084052543179 22.998537376139726 1.123191085161565 62.444574324367316 20.515871512450019 0.0097773757617920527 0.96782159582618521 22.413204247114763 -0.56791261417690342 15.10237573080404
decision_type=2 2 2 2 2 2 2 2 2 2
left_child=1 2 4 -4 -1 -6 -2 -3 9 -9
right_child=6 7 3 -5 5 -7 -8 8 -10 -11
leaf_value=0.11199498189823338 -0.068587201623580535 0.068212618258556776 0.054268009724822847 -0.071247579074280712 0.07656926291478712 -0.036782804007999881 0.03322318791889619 0.10699486530554203 0.087536858714388502 0.12405658473755735
leaf_weight=18.317057609558105 6.1175305694341642 18.621896922588348 9.5045735090970975 5.9998325854539862 14.582157284021379 6.8374753445386878 4.6326615214347839 17.261673271656036 22.306974455714226 21.935030251741409
leaf_count=23 31 36 22 29 28 28 13 21 35 21
internal_value=0.0720665 0.0797523 0.054394 0.00569649 0.0733947 0.0403855 -0.0247133 0.0972352 0.106023 0.116543
internal_weight=146.117 135.367 55.2411 15.5044 39.7367 21.4196 10.7502 80.1256 61.5037 39.1967
internal_count=287 243 130 51 79 56 44 113 77 42
is_linear=0
shrinkage=0.05


Tree=4
num_leaves=10
num_cat=0
split_feature=31 2 21 2 20 21 21 11 7
split_gain=30.9945 36.6459 22.7792 21.31 20.276 6.63204 10.2265 6.36878 2.38601
threshold=1.0126232753632574 567.71617279052748 8.0894254793732205 588.75487213134772 5.8867154014991137 5.9823100052097233 4.9791478873668362 17.416176828682662 -6.6750067162021489
decision_type=2 2 2 2 2 2 2 2 2
left_child=3 2 4 5 7 6 -1 -2 -7
right_child=1 -3 -4 -5 -6 8 -8 -9 -10
leaf_value=0.096453949523395172 0.074991012349121422 -0.069714654176820587 0.10728171486938139 0.02251349202647529 -0.040900857212542635 0.087325628450042811 0.042595378704027152 0.017984025827180779 0.11148771634942328
leaf_weight=23.758120700716972 12.994050368666654 7.1581145077943793 13.123987719416617 12.547149047255514 7.8216375261545172 14.504969403147696 14.011774674057959 7.8647578656673423 34.566663071513176
leaf_count=32 25 36 15 36 33 20 31 23 36
internal_value=0.067382 0.0348206 0.05272 0.0834229 0.0277529 0.0922233 0.0764736 0.0534967 0.104346
internal_weight=148.351 48.9625 41.8044 99.3887 28.6804 86.8415 37.7699 20.8588 49.0716
internal_count=287 132 96 155 81 119 63 48 56
is_linear=0
shrinkage=0.05


Tree=5
num_leaves=12
num_cat=0
split_feature=11 19 5 14 27 1 28 19 18 28 15
split_gain=25.7326 38.0324 21.8257 18.7604 24.6007 7.96486 9.18384 9.89177 13.5893 10.746 5.10584
threshold=20.639715561848867 553.30882240203209 587.52761518745058 2.5406329629110771 0.023020110388847551 566.33423767089857 0.013966683804504611 484.58208604331242 520.17742408993274 0.007739192164379763 1.3509193734435521
decision_type=2 2 2 2 2 2 2 2 2 2 2
left_child=1 3 5 10 -5 6 7 -2 -9 -10 -1
right_child=2 -3 -4 4 -6 -7 -8 8 9 -11 -12
leaf_value=0.057270020547830917 0.10006373883889637 -0.070784108738671969 0.01925224539835264 -0.043666662803270875 0.089651274895412997 0.11547242574419787 0.10497543540387957 -0.0094008568899696526 0.11425500918973641 0.046195816031299082 0.1014640902994465
leaf_weight=12.627351373434069 16.268137618899345 7.0669256895780554 12.915237888693808 8.7284165471792203 5.7330720424652091 21.278470292687416 25.811546713113785 7.00204874575138 8.7377304732799548 17.249109208583832 13.546989738941191
leaf_count=26 20 35 38 38 8 22 25 22 8 36 17
internal_value=0.0669118 0.0362728 0.0802884 0.0548909 0.00918553 0.0884702 0.0808164 0.0681566 0.0524219 0.0690798 0.0801434
internal_weight=156.965 47.7028 109.262 40.6358 14.4615 96.347 75.0686 49.257 32.9889 25.9868 26.1743
internal_count=295 124 171 89 46 133 111 86 66 44 43
is_linear=0
shrinkage=0.05


Tree=6
num_leaves=12
num_cat=0
split_feature=11 1 5 19 9 1 33 25 25 18 17
split_gain=22.4709 28.4648 19.2347 16.8571 7.11016 6.74036 8.27194 18.1556 4.6098 3.25816 0.944546
threshold=20.639715561848867 566.33423767089857 587.52761518745058 510.60798372149276 17.302766082842933 566.33423767089857 1.0819639521200528 0.0030905909751196563 0.0056861100682377161 601.02882323805773 43.656128332429965
decision_type=2 2 2 2 2 2 2 2 2 2 2
left_child=1 3 5 -1 -5 6 8 -8 10 -3 -2
right_child=2 9 -4 4 -6 -7 7 -9 -10 -11 -12
leaf_value=0.0044904102069914242 0.085083800376930765 -0.071204409475682781 0.018183503909995982 0.11290605259007971 0.057597464439511893 0.10752851178249433 -0.0031302447507485804 0.088570934990835223 0.064100294076722422 -0.011715571909211927 0.101795954427818
leaf_weight=12.139656141400335 12.821978107094763 5.0794035047292692 12.988665759563444 8.632067799568178 17.778765723109245 21.696165010333061 9.2733505517244357 12.914559945464132 16.049207806587219 4.2088357955217361 24.822361901402473
leaf_count=39 16 25 38 7 36 22 27 18 25 17 25
internal_value=0.0629565 0.0343268 0.0753438 0.0532584 0.0756744 0.0829524 0.0759256 0.0502448 0.0865377 -0.0442479 0.0961037
internal_weight=158.405 47.8387 110.566 38.5505 26.4108 97.5776 75.8815 22.1879 53.6935 9.28824 37.6443
internal_count=295 124 171 82 43 133 111 45 66 42 41
is_linear=0
shrinkage=0.05


Tree=7
num_leaves=12
num_cat=0
split_feature=4 31 12 20 28 9 20 29 25 9 17
split_gain=19.9248 25.3479 19.5426 27.1509 8.79002 13.4255 26.2117 25.8966 15.8618 6.88847 2.14255
threshold=586.66332690336378 1.002659308803197 67.750552439904254 4.4964209628196441 0.013966683804504611 19.624471819081062 6.1906205058755495 0.0062242515583253158 -0.0018714975273293464 28.269376316315768 87.712939821616189
decision_type=2 2 2 2 2 2 2 2 2 2 2
left_child=2 -2 4 -4 5 10 7 -7 -8 -9 -1
right_child=1 -3 3 -5 -6 6 8 9 -10 -11 -12
leaf_value=0.077147840040689322 0.061045353835770699 -0.068752987111435321 0.069002598085751557 -0.070433269811306043 0.095024297063281304 -0.016546135899508162 0.031917671384484009 0.10056137758778437 -0.078529092862043917 0.059786649610500779 0.10149451640281913
leaf_weight=19.609947428107262 8.7468749731779081 6.5991111844778052 8.2004038691520673 6.0794422030448905 29.94854524731636 7.8049542903900138 8.3574462085962278 23.547020256519318 5.3201123923063269 18.493009209632874 16.758843466639519
leaf_count=29 17 34 15 30 28 26 19 25 24 32 16
internal_value=0.0593916 0.00522922 0.0651588 0.00963975 0.0712648 0.0641415 0.0502716 0.0670963 -0.0110424 0.082625 0.0883669
internal_weight=159.466 15.346 144.12 14.2798 129.84 99.8913 63.5225 49.845 13.6776 42.04 36.3688
internal_count=295 51 244 45 199 171 126 83 43 57 45
is_linear=0
shrinkage=0.05


Tree=8
num_leaves=11
num_cat=0
split_feature=11 1 5 19 24 3 1 9 28 18
split_gain=17.9352 23.9352 15.4143 13.6704 5.90783 5.87649 9.58241 4.85122 10.8706 3.49269
threshold=20.639715561848867 566.33423767089857 587.52761518745058 510.60798372149276 56.303420607465689 502.8962051391602 494.72653656005861 20.69195130207277 0.013966683804504611 601.24545666424854
decision_type=2 2 2 2 2 2 2 2 2 2
left_child=1 3 5 -1 -5 6 -2 -7 -9 -3
right_child=2 9 -4 4 -6 7 -8 8 -10 -11
leaf_value=0.003625959350863352 0.082707180382413051 -0.069815712547180844 0.016174593231073134 0.099860119621020635 0.050534859960716882 0.098312927640072767 0.019725181117363863 0.041498924621307123 0.090199186956166535 -0.0070802632037005311
leaf_weight=12.110890969634054 12.624112725257875 5.1187647581100446 13.052762210369108 9.2915433943271655 17.511740833520889 26.099820703268051 11.578028097748755 18.550844460725784 29.971873670816422 3.9157255291938782
leaf_count=39 15 26 38 10 33 26 28 36 28 16
internal_value=0.0562766 0.0306917 0.0672418 0.0477132 0.0676338 0.0739867 0.0525773 0.0809304 0.0715805 -0.0426249
internal_weight=159.826 47.9487 111.877 38.9142 26.8033 98.8247 24.2021 74.6225 48.5227 9.03449
internal_count=295 124 171 82 43 133 43 90 64 42
is_linear=0
shrinkage=0.05


Tree=9
num_leaves=13
num_cat=0
split_feature=13 9 24 2 22 29 16 8 22 33 32 33
split_gain=16.7771 19.1659 25.47 15.6838 19.1628 6.62328 4.75661 5.98295 8.33508 7.96336 7.16755 0.034826
threshold=67.528164252115843 19.180980141240571 63.264096925000096 588.75487213134772 509.82417783285183 0.0062242515583253158 91.197362877542204 -0.21340390371483273 487.95579906373467 1.0654327459823596 1.0401954368074626 1.1209790369177259
decision_type=2 2 2 2 2 2 2 2 2 2 2 2
left_child=3 -2 -3 5 -5 -1 7 8 -7 -9 -11 -4
right_child=1 2 11 4 -6 6 -8 9 -10 10 -12 -13
leaf_value=0.035763248382466362 0.068600490653488541 0.041114231502101868 -0.072903666877018519 0.075555451288066247 -0.043078690256861528 0.04924454811917979 0.099673876316675403 0.084266787924529782 0.091221569105927339 0.0029005534942588337 0.065748678832849058 -0.066738391450538601
leaf_weight=13.879919588565825 13.699689745903013 11.812009632587435 4.7530052512884122 6.2956274151802045 7.4107745289802551 17.306219175457947 13.978805482387541 10.676068499684343 37.34282985329628 10.508593633770944 7.9826705604791632 4.4211724400520325
leaf_count=30 21 27 23 11 30 30 13 11 34 28 13 24
internal_value=0.0533756 0.0225992 -0.00743021 0.0618896 0.0114124 0.0680849 0.0726723 0.068169 0.0779283 0.0498835 0.0300321 -0.0699325
internal_weight=160.067 34.6859 20.9862 125.382 13.7064 111.675 97.7952 83.8164 54.649 29.1673 18.4913 9.17418
internal_count=295 95 74 200 41 159 129 116 64 52 41 47
is_linear=0
shrinkage=0.05


Tree=10
num_leaves=12
num_cat=0
split_feature=1 8 7 31 9 33 14 28 8 31 17
split_gain=21.9601 19.2404 22.5831 14.7332 13.137 22.6984 16.6708 9.8017 4.77282 8.71848 3.32529
threshold=587.76182250976569 -0.1948096932335108 5.096093109645353 1.002659308803197 18.899129245991169 1.0654327459823596 2.5406329629110771 0.0079044308840133474 -0.54550081302835263 0.98584911091778926 87.981654462247121
decision_type=2 2 2 2 2 2 2 2 2 2 2
left_child=1 8 4 -2 -3 -6 -7 10 9 -1 -4
right_child=3 2 7 -5 5 6 -8 -9 -10 -11 -12
leaf_value=0.077861018235868884 0.040939024814012903 0.084552733493501175 -0.07555689937577989 -0.067633179122344858 0.074075703868678386 0.033604385371605025 -0.074509630259540258 0.024602910131388399 0.088133529317029183 0.031411152643478109 -0.015915347395176582
leaf_weight=28.413429751992226 5.9730619639158231 18.807603508234024 5.2037587612867373 6.5522945523262024 15.067341655492784 8.1731526106595975 6.3248765319585791 8.7839792519807798 26.69832019507885 15.675294011831282 4.242363303899765
leaf_count=31 13 20 24 35 17 19 31 22 28 32 16
internal_value=0.0475217 0.0532997 0.0340099 -0.0158575 0.0518833 0.031101 -0.0135612 -0.0134167 0.0714494 0.0613462 -0.0487712
internal_weight=149.915 137.39 66.6031 12.5254 48.373 29.5654 14.498 18.2301 70.787 44.0887 9.44612
internal_count=288 240 149 48 87 67 50 62 91 63 40
is_linear=0
shrinkage=0.05


Tree=11
num_leaves=11
num_cat=0
split_feature=1 10 31 8 33 7 17 20 8 31
split_gain=19.8311 21.1611 13.6373 8.30499 15.6229 9.95309 7.47277 5.81243 5.38059 8.03584
threshold=587.76182250976569 34.335207945880349 1.002659308803197 -0.1948096932335108 1.117621201380713 4.5440686667768402 86.54535432667528 4.4402610455102716 -0.54550081302835263 0.98584911091778926
decision_type=2 2 2 2 2 2 2 2 2 2
left_child=1 3 -2 8 6 -6 -5 -3 9 -1
right_child=2 7 -4 4 5 -7 -8 -9 -10 -11
leaf_value=0.074416457995693047 0.038602121121595001 0.024542449006948033 -0.066504485089553159 0.030881465994190227 0.039299915115746785 -0.042201434937099755 0.075979092222607125 -0.040519929098408958 0.087638451795668648 0.029796057868702375
leaf_weight=28.246204540133476 6.0167495757341367 6.8562176525592786 6.3358123451471329 14.558753207325934 7.6464159637689573 7.3437138199806213 24.889793992042542 6.8746656328439713 24.713506892323494 15.698091626167296
leaf_count=31 13 17 35 28 18 32 29 29 24 32
internal_value=0.0453645 0.050842 -0.0153086 0.0574092 0.0428241 -0.000627864 0.0593355 -0.00803245 0.0689736 0.0584768
internal_weight=149.18 136.827 12.3526 123.096 54.4387 14.9901 39.4485 13.7309 68.6578 43.9443
internal_count=288 240 48 194 107 50 57 46 87 63
is_linear=0
shrinkage=0.05


Tree=12
num_leaves=13
num_cat=0
split_feature=1 10 31 30 28 15 28 28 11 29 31 13
split_gain=17.9131 19.1854 12.642 7.61726 11.2723 6.91337 6.12058 13.1427 3.29648 3.96474 3.08899 4.20632
threshold=587.76182250976569 34.335207945880349 1.002659308803197 0.85968541806454091 0.0059288103896541671 1.6520196934944529 0.014228487419204823 0.0085879985669031125 20.542490186200002 0.0052991643478458037 1.0029396819172793 34.572290915347523
decision_type=2 2 2 2 2 2 2 2 2 2 2 2
left_child=1 3 -2 4 -1 -3 7 -6 9 -5 11 -10
right_child=2 5 -4 8 6 -7 -8 -9 10 -11 -12 -13
leaf_value=-0.069681915851856777 0.036441408804778683 -0.044055772879065508 -0.065464515936181411 0.082449644157475757 0.053058972637422909 0.027083430851134644 0.070621895247095182 -0.028210306324594942 0.075523796810702759 0.032823896639974891 0.083098009542318815 0.042686666292623875
leaf_weight=2.3502846062183371 6.0538249760866147 6.6779265999793989 6.1201086789369583 5.4705181717872646 16.0763762742281 6.9898519366979599 13.11197769641876 7.2039802223443976 21.030111521482468 15.229180261492727 23.907959759235382 18.18583545088768
leaf_count=12 13 26 35 6 28 20 14 22 22 34 26 30
internal_value=0.0433215 0.0485143 -0.014789 0.05478 0.0364454 -0.0076744 0.0432993 0.0279106 0.0632542 0.045939 0.0689322 0.060296
internal_weight=148.408 136.234 12.1739 122.566 38.7426 13.6678 36.3923 23.2804 83.8236 20.6997 63.1239 39.2159
internal_count=288 240 48 194 76 46 64 50 118 40 78 52
is_linear=0
shrinkage=0.05


Tree=13
num_leaves=11
num_cat=0
split_feature=1 10 11 8 33 30 24 15 8 26
split_gain=16.1863 17.4459 11.0117 7.26527 13.8234 9.09006 6.82833 6.28125 4.64225 7.37783
threshold=587.76182250976569 34.335207945880349 26.617587905453288 -0.1948096932335108 1.117621201380713 0.96614398138823787 66.641094424869053 1.6520196934944529 -0.54550081302835263 -0.0085159187359036808
decision_type=2 2 2 2 2 2 2 2 2 2
left_child=1 3 -2 8 6 -6 -5 -3 9 -1
right_child=2 7 -4 4 5 -7 -8 -9 -10 -11
leaf_value=0.069721755526880994 -0.065272928451780773 -0.042351730807613917 0.030740212301151981 0.03270050536712843 -0.041496290223237559 0.036352278141052762 0.074524064843565094 0.025539632143970505 0.080633583005991105 0.027385613378864311
leaf_weight=26.68115146458149 5.6245148628950101 6.6012594103813154 6.3666287064552307 18.897944763302803 7.42187352478504 7.5788722634315491 20.180794224143028 7.040402740240097 24.441143617033958 16.751749023795128
leaf_count=30 33 26 15 34 33 17 23 20 24 33
internal_value=0.0413864 0.0463105 -0.0142953 0.0523088 0.0386368 -0.00216462 0.0542988 -0.00731329 0.0632022 0.053393
internal_weight=147.586 135.595 11.9911 121.954 54.0795 15.0007 39.0787 13.6417 67.874 43.4329
internal_count=288 240 48 194 107 50 57 46 87 63
is_linear=0
shrinkage=0.05


Tree=14
num_leaves=12
num_cat=0
split_feature=1 8 9 33 27 14 31 31 8 31 11
split_gain=14.6764 13.973 17.8988 27.3112 15.8961 26.8531 11.1194 3.84045 3.57748 7.16602 0.148106
threshold=587.76182250976569 -0.1948096932335108 18.899129245991169 1.0668511126356168 0.014221505334539588 2.5406329629110771 1.002659308803197 1.0218216772732227 -0.54550081302835263 0.98584911091778926 20.542490186200002
decision_type=2 2 2 2 2 2 2 2 2 2 2
left_child=1 8 -3 -4 7 -6 -2 10 9 -1 -5
right_child=6 2 3 4 5 -7 -8 -9 -10 -11 -12
leaf_value=0.06649592673407155 0.033193581402226127 0.066035133875085514 0.06076478134126978 -0.072064877649351863 0.066129598765535452 -0.072616079309913623 -0.063832966014538278 -0.019813766246777595 0.07454092133914389 0.02411506265868138 -0.084857843087111376
leaf_weight=27.457551643252373 6.0962518155574781 20.797839313745499 16.571469336748123 4.4627310335636157 9.456383064389227 5.5247936844825736 5.7266806960105896 4.0184628516435614 26.148128911852837 15.664465487003325 4.5886583626270294
leaf_count=31 13 26 21 22 16 28 35 16 28 32 20
internal_value=0.0396098 0.0442984 0.0277268 0.0098719 -0.0201937 0.0149626 -0.0138032 -0.0604912 0.0599489 0.0511007 -0.0785504
internal_weight=146.513 134.69 65.4203 44.6225 28.051 14.9812 11.8229 13.0699 69.2701 43.122 9.05139
internal_count=288 240 149 123 102 44 48 58 91 63 42
is_linear=0
shrinkage=0.05


Tree=15
num_leaves=11
num_cat=0
split_feature=30 33 17 29 20 26 18 31 11 11
split_gain=13.5146 10.8779 19.0314 3.83211 9.31148 12.9921 7.51619 4.55949 2.03896 1.96449
threshold=0.67944234293303851 1.1419242337590656 78.381868398331449 0.013073560336324916 6.2381392144846988 -0.014066984565698435 599.85155991370004 1.0158281440609727 25.289969121262828 21.389952911198908
decision_type=2 2 2 2 2 2 2 2 2 2
left_child=-1 3 -3 4 7 -6 -7 8 9 -2
right_child=1 2 -4 -5 5 6 -8 -9 -10 -11
leaf_value=-0.011632328385226652 0.059737372809513883 0.044970227263405507 -0.066110257056696251 0.069743552792844804 0.060951178663042643 -0.047381431607777885 0.03013143356032701 0.032317924270763042 0.052270925842098193 0.084670757040898978
leaf_weight=10.796949446201323 17.462583735585216 12.255323782563211 5.6261869817972174 23.877981841564178 10.516878306865694 7.2842465192079526 5.480451688170433 15.930947676301001 26.608036175370216 14.426516175270079
leaf_count=32 26 25 33 25 13 30 11 37 38 15
internal_value=0.0422603 0.0464323 0.0100202 0.0517874 0.0473993 0.0198016 -0.0141017 0.056032 0.0624902 0.0710171
internal_weight=150.266 139.469 17.8815 121.588 97.7097 23.2816 12.7647 74.4281 58.4971 31.8891
internal_count=285 253 58 195 170 54 41 116 79 41
is_linear=0
shrinkage=0.05


Tree=16
num_leaves=11
num_cat=0
split_feature=30 33 24 29 20 29 14 33 26 25
split_gain=12.3441 9.89055 14.1095 3.6965 8.33808 11.9396 4.31721 4.21524 2.64197 3.10421
threshold=0.67944234293303851 1.1419242337590656 56.303420607465689 0.013073560336324916 6.2381392144846988 0.0099769031532876643 1.7308940736739522 1.0743204149968009 0.0016705227962429128 -0.004902976197264707
decision_type=2 2 2 2 2 2 2 2 2 2
left_child=-1 3 -3 4 6 -6 8 -8 9 -2
right_child=1 2 -4 -5 5 -7 7 -9 -10 -11
leaf_value=-0.011054777384532453 0.048036344003331524 0.047469561885229918 -0.042953549085619235 0.067387222098598473 -0.029609361877328003 0.045656368751829712 0.061360406180620608 0.013511435755562679 0.043537878238722287 0.077793791580747007
leaf_weight=10.793078184127806 13.327624574303625 10.296772241592409 7.4250793606042853 23.48718672990799 8.1564619839191455 14.884513124823568 7.7530295252800014 11.327634215354918 16.129690334200859 25.593937546014786
leaf_count=32 20 20 38 25 29 25 12 31 27 26
internal_value=0.0404467 0.0444635 0.0095842 0.0495864 0.0452838 0.0190124 0.0534492 0.0329539 0.0605529 0.0676042
internal_weight=149.175 138.382 17.7219 120.66 97.1729 23.041 74.1319 19.0807 55.0513 38.9216
internal_count=285 253 58 195 170 54 116 43 73 46
is_linear=0
shrinkage=0.05


Tree=17
num_leaves=11
num_cat=0
split_feature=30 33 24 29 20 26 18 31 1 33
split_gain=11.2789 9.04138 12.8006 3.58261 7.57317 11.6854 6.39045 4.15684 3.22754 5.78548
threshold=0.67944234293303851 1.1419242337590656 56.303420607465689 0.013073560336324916 6.2381392144846988 -0.014066984565698435 599.85155991370004 1.0158281440609727 495.94593200683602 1.0977373571088085
decision_type=2 2 2 2 2 2 2 2 2 2
left_child=-1 3 -3 4 7 -6 -7 8 -2 -10
right_child=1 2 -4 -5 5 6 -8 -9 9 -11
leaf_value=-0.010506216637883578 0.077266448676248184 0.044972574896316155 -0.041549741044727972 0.065215426340395607 0.057767022149973681 -0.045041148356643718 0.026761745698395342 0.028568839565820049 0.024577931465198533 0.06350438362051096
leaf_weight=10.78889414668083 15.037495598196982 10.324281439185144 7.2954904884099951 23.06657662987709 10.274995893239977 7.1769483834505063 5.4533069282770157 16.033328577876091 14.43184784054756 28.190948888659477
leaf_count=32 15 20 38 25 13 30 11 37 28 36
internal_value=0.0387189 0.0425874 0.00914789 0.0475111 0.0432835 0.0181722 -0.0140391 0.0510886 0.0573505 0.0503241
internal_weight=148.074 137.285 17.6198 119.665 96.5989 22.9053 12.6303 73.6936 57.6603 42.6228
internal_count=285 253 58 195 170 54 41 116 79 64
is_linear=0
shrinkage=0.05


Tree=18
num_leaves=11
num_cat=0
split_feature=30 33 24 29 20 30 27 1 25 9
split_gain=10.3342 8.29843 11.6216 3.46042 6.89378 16.4481 3.46843 3.69188 4.33983 2.8244
threshold=0.67944234293303851 1.1419242337590656 56.303420607465689 0.013073560336324916 5.9815437249914885 1.0634156869691036 0.009391332597243009 495.94593200683602 0.0041514257063040025 19.070797042754283
decision_type=2 2 2 2 2 2 2 2 2 2
left_child=-1 3 -3 4 6 -6 7 -2 -9 -8
right_child=1 2 -4 -5 5 -7 9 8 -10 -11
leaf_value=-0.009985114440902422 0.0791156707915881 0.042651319192781659 -0.040187559201483244 0.063202570575295061 -0.035239287673323891 0.048312292578999813 0.053928551547525641 0.034776428642368039 0.070130192333604902 0.015656950858131371
leaf_weight=10.784461751580237 13.405685558915136 10.341372653841974 7.1689040139317504 22.622440844774246 8.9853184968233126 17.101535975933075 8.3795884847641009 22.450784459710121 14.15231731534004 11.350782930850981
leaf_count=32 13 20 38 25 34 27 12 40 16 28
internal_value=0.0371271 0.0408641 0.00873615 0.0456136 0.0414612 0.0195339 0.0496634 0.0566673 0.0484457 0.0319111
internal_weight=146.743 135.959 17.5103 118.448 95.826 26.0869 69.7392 50.0088 36.6031 19.7304
internal_count=285 253 58 195 170 61 109 69 56 40
is_linear=0
shrinkage=0.05


Tree=19
num_leaves=11
num_cat=0
split_feature=30 33 32 9 29 20 30 7 11 13
split_gain=9.47331 7.61774 10.7522 5.154 3.35604 6.28371 14.9694 3.45547 2.69819 3.42703
threshold=0.67944234293303851 1.1419242337590656 1.0143133763098899 22.996150952838349 0.013073560336324916 5.9815437249914885 1.0634156869691036 5.9586084596117468 25.53314761230622 64.769942059424082
decision_type=2 2 2 2 2 2 2 2 2 2
left_child=-1 4 -3 -4 5 7 -7 8 9 -2
right_child=1 2 3 -5 -6 6 -8 -9 -10 -11
leaf_value=-0.009490033320040182 0.077929089350542213 0.051926170077933965 0.0057367320089028104 -0.068009717792338345 0.061327288564395357 -0.033706284221984045 0.046289388296167883 0.026144901339725263 0.039074856136730472 0.046142242143159942
leaf_weight=10.77983672916889 16.986818924546242 7.8039483875036266 5.3188126236200315 4.2722103521227837 22.160266488790512 8.9258228987455386 16.960077032446861 14.778023853898047 20.470077469944954 16.930738836526871
leaf_count=32 16 13 20 25 25 34 27 33 32 28
internal_value=0.035611 0.0392228 0.00834666 -0.0271128 0.043805 0.0397199 0.0187058 0.0475847 0.0534102 0.0620619
internal_weight=145.387 134.607 17.395 9.59102 117.212 95.0516 25.8859 69.1657 54.3876 33.9176
internal_count=285 253 58 45 195 170 61 109 76 44
is_linear=0
shrinkage=0.05


Tree=20
num_leaves=12
num_cat=0
split_feature=4 28 6 30 24 6 28 28 22 24 23
split_gain=20.4675 13.9321 7.5444 10.6719 20.7316 4.34161 4.21506 9.03484 15.6786 2.45323 0.384236
threshold=586.66332690336378 0.01006806860812127 4.8154187316037005 0.9616305220978687 55.336912928140357 6.2094899754288813 0.0081753907224449973 0.013966683804504611 491.81334516242924 71.071514199430723 2797473550.0000005
decision_type=2 2 2 2 2 2 2 2 2 2 2
left_child=2 10 6 4 -4 -5 -1 8 -8 -6 -2
right_child=1 -3 3 5 9 -7 7 -9 -10 -11 -12
leaf_value=0.062607042270434829 -0.085152247547671506 0.034184254564705752 0.04720682219294807 0.022760773427286694 -0.075656742604434238 0.063647991901308695 -0.035694478339910497 0.061953766446054562 0.043749117147091232 -0.025966256928607347 -0.062197525728104955
leaf_weight=29.358764588832855 3.4433051943778974 5.1766224950551987 9.6180146932601946 12.98781928420067 5.9863996133208257 12.982399716973303 8.7095651179552096 24.10990209877491 21.644673377275467 4.245404839515686 3.8741905391216278
leaf_count=37 16 9 16 29 29 17 26 27 33 18 26
internal_value=0.0325278 -0.0285904 0.038418 0.0221039 -0.00549692 0.0432001 0.0473357 0.0391037 0.0209543 -0.055039 -0.0729991
internal_weight=142.137 12.4941 129.643 45.82 19.8498 25.9702 83.8229 54.4641 30.3542 10.2318 7.3175
internal_count=283 51 232 109 63 46 123 86 59 47 42
is_linear=0
shrinkage=0.05


Tree=21
num_leaves=10
num_cat=0
split_feature=4 22 33 9 18 20 25 11 32
split_gain=18.7045 13.1826 7.23501 19.065 17.2649 10.5542 6.18062 3.78588 2.77844
threshold=586.66332690336378 509.82417783285183 1.0819639521200528 25.066032788028526 554.56686565191592 6.5459228184085712 0.0052220689559533415 20.639715561848867 1.0154288281342365
decision_type=2 2 2 2 2 2 2 2 2
left_child=2 -2 6 5 -5 7 8 -4 -1
right_child=1 -3 3 4 -6 -7 -8 -9 -10
leaf_value=0.048237018420941462 0.026084385443423255 -0.077676513455191068 0.036976107329418195 0.014097591399127404 -0.086761078822715484 0.0077371643970252195 0.022513751798900361 0.072149432092132135 0.073593469591869118
leaf_weight=24.798901736736298 5.9046695381402952 6.356206864118576 12.081614330410956 15.768183931708338 5.8051229193806639 14.243888065218924 15.445817977190016 20.858084365725517 19.143047794699669
leaf_count=34 17 34 22 38 28 38 30 21 21
internal_value=0.0312918 -0.0277067 0.0369367 0.0258952 -0.0130423 0.0436982 0.0497202 0.0592486 0.0592834
internal_weight=140.406 12.2609 128.145 68.7569 21.5733 47.1836 59.3878 32.9397 43.9419
internal_count=283 51 232 147 66 81 85 43 55
is_linear=0
shrinkage=0.05


Tree=22
num_leaves=13
num_cat=0
split_feature=2 3 13 7 30 9 21 30 21 33 5 1
split_gain=17.3094 12.1238 8.62487 15.418 8.36516 5.27213 5.24416 8.12617 9.04535 4.0667 2.08652 5.39081
threshold=588.75487213134772 586.05177612304703 67.528164252115843 5.096093109645353 0.92252731015662903 34.39049748449532 7.2849079895482545 0.93430407845394836 4.4914432269976965 1.0819639521200528 542.45643751223201 566.33423767089857
decision_type=2 2 2 2 2 2 2 2 2 2 2 2
left_child=2 -2 6 4 -4 -5 7 8 -1 -9 -8 -12
right_child=1 -3 3 5 -6 -7 10 9 -10 -11 11 -13
leaf_value=0.040088077746166469 0.018305779932650673 -0.084933703505676791 0.0061084491948254381 -0.071463984832490987 0.070282456643806335 -0.00076116179713488317 0.066832440406426941 0.064048356740640883 -0.03542037081609295 0.028601105513882976 0.024608927972468789 0.068178372696229256
leaf_weight=7.8109087795019141 6.2338119074702245 5.2291203662753105 10.278304003179079 5.3611688539385778 10.036709174513815 5.1882605701684952 19.806894183158875 15.385964557528494 8.0577272772788984 17.066105142235756 14.670526176691057 13.756970122456549
leaf_count=13 18 26 30 27 12 16 21 17 30 32 26 15
internal_value=0.0300619 -0.0287896 0.0353563 0.0123478 0.0378139 -0.036692 0.042711 0.0310689 0.00174663 0.0454071 0.054374 0.0456936
internal_weight=138.882 11.4629 127.42 30.8644 20.315 10.5494 96.5551 48.3207 15.8686 32.4521 48.2344 28.4275
internal_count=283 44 239 85 42 43 154 92 43 49 62 41
is_linear=0
shrinkage=0.05


Tree=23
num_leaves=12
num_cat=0
split_feature=2 22 6 30 8 6 33 1 28 21 1
split_gain=15.8485 14.5061 8.16962 10.317 12.286 4.14517 3.64911 3.87937 6.53734 9.8305 6.10175
threshold=588.75487213134772 509.82417783285183 4.8154187316037005 0.9616305220978687 0.31494626676239262 6.2094899754288813 1.046763537197225 563.30823669433596 0.0059466596253269595 6.1693956141564712 534.12547607421891
decision_type=2 2 2 2 2 2 2 2 2 2 2
left_child=2 -2 6 4 -4 -5 -1 8 -8 -10 -11
right_child=1 -3 3 5 -6 -7 7 -9 9 10 -12
leaf_value=0.065744787475222333 0.031599220055125936 -0.081538435597817274 0.01551816409606597 0.018451330191124514 -0.069969576354261973 0.058966776666626579 0.076975726789222931 0.057263337625034161 -0.025484069762729857 0.064217723689653283 0.018357962107611831
leaf_weight=15.178363561630247 5.4123887419700605 5.945381186902523 14.507879704236986 12.728991881012918 5.9169671684503546 12.524972409009932 6.4984337091445914 19.356043443083763 8.2968443781137449 11.724466666579248 19.019300147891045
leaf_count=16 13 31 36 29 34 17 6 28 23 13 37
internal_value=0.0289399 -0.0276242 0.0340487 0.0171754 -0.00924717 0.0385454 0.0436743 0.0385122 0.0305421 0.0228131 0.0358471
internal_weight=137.11 11.3578 125.752 45.6788 20.4248 25.254 80.0735 64.8951 45.539 39.0406 30.7438
internal_count=283 44 239 116 70 46 123 107 79 73 50
is_linear=0
shrinkage=0.05


Tree=24
num_leaves=12
num_cat=0
split_feature=4 31 10 21 19 3 7 24 4 23 24
split_gain=14.63 12.1121 6.39107 6.47026 4.6737 9.30132 6.65671 10.3489 4.57326 7.85198 0.214454
threshold=586.66332690336378 0.98612124525314637 35.170701879032279 4.2334759939596314 484.58208604331242 506.83988128662116 4.7589295039863044 59.282182875008104 531.69939828356735 2324204000.0000005 60.601365273440443
decision_type=2 2 2 2 2 2 2 2 2 2 2
left_child=2 -2 4 -4 -1 -6 8 -8 -7 -10 -3
right_child=1 10 3 -5 5 6 7 -9 9 -11 -12
leaf_value=0.061110405501556136 0.032917460368499629 -0.077135941837960909 0.030160826685341591 -0.040025368140463341 -0.021025196262011513 0.06598499008111107 0.047639606506191971 -0.023261215429415959 0.002120469769567064 0.048867317490388487 -0.059138469316257637
leaf_weight=16.903897643089294 5.0911322683095914 3.7963732704520226 7.745454862713812 5.7002764269709587 7.4574266821146002 18.597365170717239 10.358106687664987 10.229613885283468 12.160694792866705 34.374944359064102 2.9347423911094666
leaf_count=20 9 19 17 23 21 20 16 37 29 49 23
internal_value=0.0278619 -0.0252749 0.0329473 0.000405605 0.0369221 0.032534 0.0371934 0.0124104 0.045027 0.0366514 -0.0692891
internal_weight=135.35 11.8222 123.528 13.4457 110.082 93.1782 85.7207 20.5877 65.133 46.5356 6.73112
internal_count=283 51 232 40 192 172 151 53 98 78 42
is_linear=0
shrinkage=0.05


Tree=25
num_leaves=10
num_cat=0
split_feature=33 14 30 25 23 28 28 4 9
split_gain=9.05194 13.1767 12.5185 11.2625 4.88603 4.19859 5.02637 2.73003 1.99109
threshold=1.0819639521200528 1.7053880027473032 0.96782159582618521 -0.0043216071577497619 1630318650.0000002 0.0097621025301554577 0.0064824470340142304 531.69939828356735 20.69195130207277
decision_type=2 2 2 2 2 2 2 2 2
left_child=4 3 8 -2 -1 6 -5 -6 -3
right_child=1 2 -4 5 7 -7 -8 -9 -10
leaf_value=0.016200377843994886 -0.028051837946526992 -0.026070573265331742 0.016317039905781004 0.043557081707292125 0.060813882990968383 0.055490692964181743 -1.4576033425335793e-05 0.036331232434114118 -0.072033488850123784
leaf_weight=14.122676238417624 7.3149662464857093 3.6190080791711825 14.150800563395022 16.123139284551147 25.35873855650425 20.763859659433365 11.228442892432211 20.665793031454086 6.7526607885956764
leaf_count=28 22 19 35 33 33 28 30 32 38
internal_value=0.0272735 0.0162502 -0.0142672 0.0297511 0.0419266 0.0385389 0.0256699 0.0498208 -0.0559956
internal_weight=140.1 79.9529 24.5225 55.4304 60.1472 48.1154 27.3516 46.0245 10.3717
internal_count=298 205 92 113 93 91 63 65 57
is_linear=0
shrinkage=0.05


Tree=26
num_leaves=12
num_cat=0
split_feature=13 9 14 2 18 16 9 9 22 5 26
split_gain=8.64663 9.31741 15.6249 7.91496 7.70994 6.21363 6.41347 18.1109 6.3991 5.80732 2.75223
threshold=67.528164252115843 18.378643049404292 2.2583605336160333 588.75487213134772 606.72602611396951 91.197362877542204 31.184253258642133 25.066032788028526 491.81334516242924 538.02972620505614 0.0067376579836853088
decision_type=2 2 2 2 2 2 2 2 2 2 2
left_child=3 -2 -3 5 -5 6 7 8 -1 -8 -4
right_child=1 2 10 4 -6 -7 9 -9 -10 -11 -12
leaf_value=0.0055047539480591323 0.044262150767223701 0.030832896564973539 -0.023627431655936643 0.033177704257032599 -0.048761095935384059 0.07040893133864877 0.063733824580053902 -0.039111382711832836 0.051161763952877394 0.02479116786424794 -0.075038417268453922
leaf_weight=11.249634504318236 9.2082368135452288 9.5500032380223292 4.1092272996902448 5.9282072708010656 5.5666085481643677 12.414726272225378 22.742752462625504 10.149776689708231 24.147730797529221 16.532625734806061 7.1031074225902557
leaf_count=26 17 21 18 17 24 13 26 34 35 30 37
internal_value=0.0261785 0.00240016 -0.0161659 0.0327327 -0.0065029 0.037371 0.0325355 0.0197684 0.0366515 0.0473413 -0.0561967
internal_weight=138.703 29.9706 20.7623 108.732 11.4948 97.2372 84.8225 45.5471 35.3974 39.2754 11.2123
internal_count=298 93 76 205 41 164 151 95 61 56 55
is_linear=0
shrinkage=0.05


end of trees

feature_importances:
price_to_vwap=24
adx=19
volume_ratio=18
sma_10=16
price_to_sma20=15
volatility_10=14
adx_neg=13
volatility_20=12
bb_width=11
mfi=11
macd_diff=10
sma_20=8
bb_high=8
atr=8
ema_12=7
roc=7
bb_low=7
momentum_1=7
macd_signal=6
rsi_fast=6
stoch_d=6
vwap=6
ema_26=5
adx_pos=5
momentum_3=5
momentum_5=5
price_to_sma50=5
sma_50=4
macd=4
roc_fast=4
obv=4
rsi=2
stoch_k=2

parameters:
[boosting: gbdt]
[objective: binary]
[metric: auc]
[tree_learner: serial]
[device_type: cpu]
[data_sample_strategy: bagging]
[data: ]
[valid: ]
[num_iterations: 200]
[learning_rate: 0.05]
[num_leaves: 31]
[num_threads: 0]
[seed: 0]
[deterministic: 0]
[force_col_wise: 0]
[force_row_wise: 0]
[histogram_pool_size: -1]
[max_depth: 7]
[min_data_in_leaf: 20]
[min_sum_hessian_in_leaf: 0.001]
[bagging_fraction: 0.8]
[pos_bagging_fraction: 1]
[neg_bagging_fraction: 1]
[bagging_freq: 5]
[bagging_seed: 3]
[bagging_by_query: 0]
[feature_fraction: 0.9]
[feature_fraction_bynode: 1]
[feature_fraction_seed: 2]
[extra_trees: 0]
[extra_seed: 6]
[early_stopping_round: 0]
[early_stopping_min_delta: 0]
[first_metric_only: 0]
[max_delta_step: 0]
[lambda_l1: 0]
[lambda_l2: 0]
[linear_lambda: 0]
[min_gain_to_split: 0]
[drop_rate: 0.1]
[max_drop: 50]
[skip_drop: 0.5]
[xgboost_dart_mode: 0]
[uniform_drop: 0]
[drop_seed: 4]
[top_rate: 0.2]
[other_rate: 0.1]
[min_data_per_group: 100]
[max_cat_threshold: 32]
[cat_l2: 10]
[cat_smooth: 10]
[max_cat_to_onehot: 4]
[top_k: 20]
[monotone_constraints: ]
[monotone_constraints_method: basic]
[monotone_penalty: 0]
[feature_contri: ]
[forcedsplits_filename: ]
[refit_decay_rate: 0.9]
[cegb_tradeoff: 1]
[cegb_penalty_split: 0]
[cegb_penalty_feature_lazy: ]
[cegb_penalty_feature_coupled: ]
[path_smooth: 0]
[interaction_constraints: ]
[verbosity: -1]
[saved_feature_importance_type: 0]
[use_quantized_grad: 0]
[num_grad_quant_bins: 4]
[quant_train_renew_leaf: 0]
[stochastic_rounding: 1]
[linear_tree: 0]
[max_bin: 255]
[max_bin_by_feature: ]
[min_data_in_bin: 3]
[bin_construct_sample_cnt: 200000]
[data_random_seed: 1]
[is_enable_sparse: 1]
[enable_bundle: 1]
[use_missing: 1]
[zero_as_missing: 0]
[feature_pre_filter: 1]
[pre_partition: 0]
[two_round: 0]
[header: 0]
[label_column: ]
[weight_column: ]
[group_column: ]
[ignore_column: ]
[categorical_feature: ]
[forcedbins_filename: ]
[precise_float_parser: 0]
[parser_config_file: ]
[objective_seed: 5]
[num_class: 1]
[is_unbalance: 0]
[scale_pos_weight: 5]
[sigmoid: 1]
[boost_from_average: 1]
[reg_sqrt: 0]
[alpha: 0.9]
[fair_c: 1]
[poisson_max_delta_step: 0.7]
[tweedie_variance_power: 1.5]
[lambdarank_truncation_level: 30]
[lambdarank_norm: 1]
[label_gain: ]
[lambdarank_position_bias_regularization: 0]
[eval_at: ]
[multi_error_top_k: 1]
[auc_mu_weights: ]
[num_machines: 1]
[local_listen_port: 12400]
[time_out: 120]
[machine_list_filename: ]
[machines: ]
[gpu_platform_id: -1]
[gpu_device_id: -1]
[gpu_use_dp: 0]
[num_gpu: 1]

end of parameters

pandas_categorical:[]
